digraph Tree {
node [shape=box] ;
0 [label="Action 1 <= 0.5\nmse = 0.23\nsamples = 136\nvalue = 0.64"] ;
1 [label="Action 20 <= 0.5\nmse = 0.042\nsamples = 23\nvalue = 0.043"] ;
0 -> 1 [labeldistance=2.5, labelangle=45, headlabel="True"] ;
2 [label="mse = 0.0\nsamples = 22\nvalue = 0.0"] ;
1 -> 2 ;
3 [label="mse = 0.0\nsamples = 1\nvalue = 1.0"] ;
1 -> 3 ;
4 [label="Action 27 <= 0.5\nmse = 0.182\nsamples = 113\nvalue = 0.761"] ;
0 -> 4 [labeldistance=2.5, labelangle=-45, headlabel="False"] ;
5 [label="Action 26 <= 0.5\nmse = 0.149\nsamples = 104\nvalue = 0.817"] ;
4 -> 5 ;
6 [label="3gram 1 <= 0.5\nmse = 0.066\nsamples = 70\nvalue = 0.929"] ;
5 -> 6 ;
7 [label="Action 48 <= 0.5\nmse = 0.03\nsamples = 65\nvalue = 0.969"] ;
6 -> 7 ;
8 [label="3gram 5 <= 0.5\nmse = 0.015\nsamples = 64\nvalue = 0.984"] ;
7 -> 8 ;
9 [label="mse = 0.0\nsamples = 61\nvalue = 1.0"] ;
8 -> 9 ;
10 [label="Action 20 <= 0.5\nmse = 0.222\nsamples = 3\nvalue = 0.667"] ;
8 -> 10 ;
11 [label="mse = 0.0\nsamples = 2\nvalue = 1.0"] ;
10 -> 11 ;
12 [label="mse = 0.0\nsamples = 1\nvalue = 0.0"] ;
10 -> 12 ;
13 [label="mse = 0.0\nsamples = 1\nvalue = 0.0"] ;
7 -> 13 ;
14 [label="from_Single <= 0.5\nmse = 0.24\nsamples = 5\nvalue = 0.4"] ;
6 -> 14 ;
15 [label="mse = 0.0\nsamples = 2\nvalue = 1.0"] ;
14 -> 15 ;
16 [label="mse = 0.0\nsamples = 3\nvalue = 0.0"] ;
14 -> 16 ;
17 [label="Action 25 <= 0.5\nmse = 0.242\nsamples = 34\nvalue = 0.588"] ;
5 -> 17 ;
18 [label="Action 21 <= 0.5\nmse = 0.213\nsamples = 13\nvalue = 0.308"] ;
17 -> 18 ;
19 [label="Action 7 <= 0.5\nmse = 0.149\nsamples = 11\nvalue = 0.182"] ;
18 -> 19 ;
20 [label="mse = 0.0\nsamples = 8\nvalue = 0.0"] ;
19 -> 20 ;
21 [label="from_Single <= 0.5\nmse = 0.222\nsamples = 3\nvalue = 0.667"] ;
19 -> 21 ;
22 [label="mse = 0.0\nsamples = 1\nvalue = 0.0"] ;
21 -> 22 ;
23 [label="mse = 0.0\nsamples = 2\nvalue = 1.0"] ;
21 -> 23 ;
24 [label="mse = 0.0\nsamples = 2\nvalue = 1.0"] ;
18 -> 24 ;
25 [label="Action 23 <= 0.5\nmse = 0.181\nsamples = 21\nvalue = 0.762"] ;
17 -> 25 ;
26 [label="3gram 3 <= 0.5\nmse = 0.133\nsamples = 19\nvalue = 0.842"] ;
25 -> 26 ;
27 [label="Action 4 <= 0.5\nmse = 0.099\nsamples = 18\nvalue = 0.889"] ;
26 -> 27 ;
28 [label="4gram 1 <= 0.5\nmse = 0.055\nsamples = 17\nvalue = 0.941"] ;
27 -> 28 ;
29 [label="mse = 0.0\nsamples = 13\nvalue = 1.0"] ;
28 -> 29 ;
30 [label="4gram 3 <= 0.5\nmse = 0.188\nsamples = 4\nvalue = 0.75"] ;
28 -> 30 ;
31 [label="mse = 0.0\nsamples = 1\nvalue = 0.0"] ;
30 -> 31 ;
32 [label="mse = 0.0\nsamples = 3\nvalue = 1.0"] ;
30 -> 32 ;
33 [label="mse = 0.0\nsamples = 1\nvalue = 0.0"] ;
27 -> 33 ;
34 [label="mse = 0.0\nsamples = 1\nvalue = 0.0"] ;
26 -> 34 ;
35 [label="mse = 0.0\nsamples = 2\nvalue = 0.0"] ;
25 -> 35 ;
36 [label="Action 35 <= 0.5\nmse = 0.099\nsamples = 9\nvalue = 0.111"] ;
4 -> 36 ;
37 [label="mse = 0.0\nsamples = 8\nvalue = 0.0"] ;
36 -> 37 ;
38 [label="mse = 0.0\nsamples = 1\nvalue = 1.0"] ;
36 -> 38 ;
}